digraph Tree {
node [shape=box, style="filled", color="black", fontname="helvetica"] ;
edge [fontname="helvetica"] ;
0 [label="odor_n <= 0.5\ngini = 0.499\nsamples = 5686\nvalue = [2945, 2741]\nclass = 독", fillcolor="#fdf6f1"] ;
1 [label="stalk-root_c <= 0.5\ngini = 0.293\nsamples = 3219\nvalue = [573, 2646]\nclass = 식용", fillcolor="#64b2eb"] ;
0 -> 1 [labeldistance=2.5, labelangle=45, headlabel="True"] ;
2 [label="stalk-surface-below-ring_y <= 0.5\ngini = 0.131\nsamples = 2819\nvalue = [199.0, 2620.0]\nclass = 식용", fillcolor="#48a4e7"] ;
1 -> 2 ;
3 [label="odor_a <= 0.5\ngini = 0.051\nsamples = 2690\nvalue = [70, 2620]\nclass = 식용", fillcolor="#3ea0e6"] ;
2 -> 3 ;
4 [label="odor_l <= 0.5\ngini = 0.025\nsamples = 2654\nvalue = [34, 2620]\nclass = 식용", fillcolor="#3c9ee5"] ;
3 -> 4 ;
5 [label="gini = 0.0\nsamples = 2620\nvalue = [0, 2620]\nclass = 식용", fillcolor="#399de5"] ;
4 -> 5 ;
6 [label="gini = 0.0\nsamples = 34\nvalue = [34, 0]\nclass = 독", fillcolor="#e58139"] ;
4 -> 6 ;
7 [label="gini = 0.0\nsamples = 36\nvalue = [36, 0]\nclass = 독", fillcolor="#e58139"] ;
3 -> 7 ;
8 [label="gini = 0.0\nsamples = 129\nvalue = [129, 0]\nclass = 독", fillcolor="#e58139"] ;
2 -> 8 ;
9 [label="stalk-surface-above-ring_s <= 0.5\ngini = 0.122\nsamples = 400\nvalue = [374, 26]\nclass = 독", fillcolor="#e78a47"] ;
1 -> 9 ;
10 [label="gini = 0.0\nsamples = 26\nvalue = [0, 26]\nclass = 식용", fillcolor="#399de5"] ;
9 -> 10 ;
11 [label="gini = 0.0\nsamples = 374\nvalue = [374, 0]\nclass = 독", fillcolor="#e58139"] ;
9 -> 11 ;
12 [label="spore-print-color_r <= 0.5\ngini = 0.074\nsamples = 2467\nvalue = [2372, 95]\nclass = 독", fillcolor="#e68641"] ;
0 -> 12 [labeldistance=2.5, labelangle=-45, headlabel="False"] ;
13 [label="stalk-surface-below-ring_y <= 0.5\ngini = 0.036\nsamples = 2416\nvalue = [2372, 44]\nclass = 독", fillcolor="#e5833d"] ;
12 -> 13 ;
14 [label="cap-surface_g <= 0.5\ngini = 0.005\nsamples = 2368\nvalue = [2362, 6]\nclass = 독", fillcolor="#e5813a"] ;
13 -> 14 ;
15 [label="cap-shape_c <= 0.5\ngini = 0.003\nsamples = 2366\nvalue = [2362.0, 4.0]\nclass = 독", fillcolor="#e58139"] ;
14 -> 15 ;
16 [label="gill-size_n <= 0.5\ngini = 0.003\nsamples = 2365\nvalue = [2362, 3]\nclass = 독", fillcolor="#e58139"] ;
15 -> 16 ;
17 [label="gini = 0.0\nsamples = 2226\nvalue = [2226, 0]\nclass = 독", fillcolor="#e58139"] ;
16 -> 17 ;
18 [label="population_c <= 0.5\ngini = 0.042\nsamples = 139\nvalue = [136, 3]\nclass = 독", fillcolor="#e6843d"] ;
16 -> 18 ;
19 [label="gini = 0.0\nsamples = 136\nvalue = [136, 0]\nclass = 독", fillcolor="#e58139"] ;
18 -> 19 ;
20 [label="gini = 0.0\nsamples = 3\nvalue = [0, 3]\nclass = 식용", fillcolor="#399de5"] ;
18 -> 20 ;
21 [label="gini = 0.0\nsamples = 1\nvalue = [0, 1]\nclass = 식용", fillcolor="#399de5"] ;
15 -> 21 ;
22 [label="gini = 0.0\nsamples = 2\nvalue = [0, 2]\nclass = 식용", fillcolor="#399de5"] ;
14 -> 22 ;
23 [label="gill-size_n <= 0.5\ngini = 0.33\nsamples = 48\nvalue = [10, 38]\nclass = 식용", fillcolor="#6db7ec"] ;
13 -> 23 ;
24 [label="gini = 0.0\nsamples = 10\nvalue = [10, 0]\nclass = 독", fillcolor="#e58139"] ;
23 -> 24 ;
25 [label="gini = 0.0\nsamples = 38\nvalue = [0, 38]\nclass = 식용", fillcolor="#399de5"] ;
23 -> 25 ;
26 [label="gini = 0.0\nsamples = 51\nvalue = [0, 51]\nclass = 식용", fillcolor="#399de5"] ;
12 -> 26 ;
}